digraph Tree {
node [shape=box, style="filled, rounded", color="black", fontname="helvetica"] ;
edge [fontname="helvetica"] ;
0 [label=<x<SUB>2</SUB> &le; 2.5<br/>gini = 0.587<br/>samples = 320<br/>value = [43, 181, 87, 9]<br/>class = 1>, fillcolor="#b5f5af"] ;
1 [label=<x<SUB>3</SUB> &le; 1.5<br/>gini = 0.552<br/>samples = 249<br/>value = [25, 150, 68, 6]<br/>class = 1>, fillcolor="#acf3a5"] ;
0 -> 1 [labeldistance=2.5, labelangle=45, headlabel="True"] ;
2 [label=<x<SUB>3</SUB> &le; 0.5<br/>gini = 0.486<br/>samples = 119<br/>value = [6, 78, 34, 1]<br/>class = 1>, fillcolor="#a0f299"] ;
1 -> 2 ;
3 [label=<x<SUB>1</SUB> &le; 0.5<br/>gini = 0.563<br/>samples = 47<br/>value = [4, 25, 18, 0]<br/>class = 1>, fillcolor="#d3f9cf"] ;
2 -> 3 ;
4 [label=<x<SUB>0</SUB> &le; 3.5<br/>gini = 0.298<br/>samples = 11<br/>value = [2, 9, 0, 0]<br/>class = 1>, fillcolor="#70eb65"] ;
3 -> 4 ;
5 [label=<gini = 0.0<br/>samples = 9<br/>value = [0, 9, 0, 0]<br/>class = 1>, fillcolor="#47e539"] ;
4 -> 5 ;
6 [label=<gini = 0.0<br/>samples = 2<br/>value = [2, 0, 0, 0]<br/>class = 0>, fillcolor="#e58139"] ;
4 -> 6 ;
7 [label=<x<SUB>0</SUB> &le; 2.5<br/>gini = 0.549<br/>samples = 36<br/>value = [2, 16, 18, 0]<br/>class = 2>, fillcolor="#ebf5fc"] ;
3 -> 7 ;
8 [label=<x<SUB>0</SUB> &le; 1.5<br/>gini = 0.539<br/>samples = 16<br/>value = [1, 9, 6, 0]<br/>class = 1>, fillcolor="#c8f7c4"] ;
7 -> 8 ;
9 [label=<x<SUB>2</SUB> &le; 1.5<br/>gini = 0.496<br/>samples = 11<br/>value = [0, 5, 6, 0]<br/>class = 2>, fillcolor="#deeffb"] ;
8 -> 9 ;
10 [label=<x<SUB>0</SUB> &le; 0.5<br/>gini = 0.375<br/>samples = 4<br/>value = [0, 1, 3, 0]<br/>class = 2>, fillcolor="#7bbeee"] ;
9 -> 10 ;
11 [label=<gini = 0.0<br/>samples = 3<br/>value = [0, 0, 3, 0]<br/>class = 2>, fillcolor="#399de5"] ;
10 -> 11 ;
12 [label=<gini = 0.0<br/>samples = 1<br/>value = [0, 1, 0, 0]<br/>class = 1>, fillcolor="#47e539"] ;
10 -> 12 ;
13 [label=<x<SUB>0</SUB> &le; 0.5<br/>gini = 0.49<br/>samples = 7<br/>value = [0, 4, 3, 0]<br/>class = 1>, fillcolor="#d1f8ce"] ;
9 -> 13 ;
14 [label=<x<SUB>1</SUB> &le; 1.5<br/>gini = 0.375<br/>samples = 4<br/>value = [0, 3, 1, 0]<br/>class = 1>, fillcolor="#84ee7b"] ;
13 -> 14 ;
15 [label=<gini = 0.0<br/>samples = 1<br/>value = [0, 0, 1, 0]<br/>class = 2>, fillcolor="#399de5"] ;
14 -> 15 ;
16 [label=<gini = 0.0<br/>samples = 3<br/>value = [0, 3, 0, 0]<br/>class = 1>, fillcolor="#47e539"] ;
14 -> 16 ;
17 [label=<x<SUB>1</SUB> &le; 1.5<br/>gini = 0.444<br/>samples = 3<br/>value = [0, 1, 2, 0]<br/>class = 2>, fillcolor="#9ccef2"] ;
13 -> 17 ;
18 [label=<gini = 0.0<br/>samples = 1<br/>value = [0, 1, 0, 0]<br/>class = 1>, fillcolor="#47e539"] ;
17 -> 18 ;
19 [label=<gini = 0.0<br/>samples = 2<br/>value = [0, 0, 2, 0]<br/>class = 2>, fillcolor="#399de5"] ;
17 -> 19 ;
20 [label=<x<SUB>1</SUB> &le; 2.5<br/>gini = 0.32<br/>samples = 5<br/>value = [1, 4, 0, 0]<br/>class = 1>, fillcolor="#75ec6a"] ;
8 -> 20 ;
21 [label=<gini = 0.0<br/>samples = 3<br/>value = [0, 3, 0, 0]<br/>class = 1>, fillcolor="#47e539"] ;
20 -> 21 ;
22 [label=<x<SUB>2</SUB> &le; 1.5<br/>gini = 0.5<br/>samples = 2<br/>value = [1, 1, 0, 0]<br/>class = 0>, fillcolor="#ffffff"] ;
20 -> 22 ;
23 [label=<gini = 0.0<br/>samples = 1<br/>value = [1, 0, 0, 0]<br/>class = 0>, fillcolor="#e58139"] ;
22 -> 23 ;
24 [label=<gini = 0.0<br/>samples = 1<br/>value = [0, 1, 0, 0]<br/>class = 1>, fillcolor="#47e539"] ;
22 -> 24 ;
25 [label=<x<SUB>1</SUB> &le; 3.5<br/>gini = 0.515<br/>samples = 20<br/>value = [1, 7, 12, 0]<br/>class = 2>, fillcolor="#b3d9f5"] ;
7 -> 25 ;
26 [label=<x<SUB>0</SUB> &le; 3.5<br/>gini = 0.439<br/>samples = 14<br/>value = [1, 3, 10, 0]<br/>class = 2>, fillcolor="#81c1ee"] ;
25 -> 26 ;
27 [label=<x<SUB>1</SUB> &le; 2.5<br/>gini = 0.594<br/>samples = 8<br/>value = [1, 3, 4, 0]<br/>class = 2>, fillcolor="#d7ebfa"] ;
26 -> 27 ;
28 [label=<x<SUB>2</SUB> &le; 1.5<br/>gini = 0.48<br/>samples = 5<br/>value = [0, 3, 2, 0]<br/>class = 1>, fillcolor="#c2f6bd"] ;
27 -> 28 ;
29 [label=<gini = 0.0<br/>samples = 2<br/>value = [0, 2, 0, 0]<br/>class = 1>, fillcolor="#47e539"] ;
28 -> 29 ;
30 [label=<x<SUB>1</SUB> &le; 1.5<br/>gini = 0.444<br/>samples = 3<br/>value = [0, 1, 2, 0]<br/>class = 2>, fillcolor="#9ccef2"] ;
28 -> 30 ;
31 [label=<gini = 0.0<br/>samples = 1<br/>value = [0, 1, 0, 0]<br/>class = 1>, fillcolor="#47e539"] ;
30 -> 31 ;
32 [label=<gini = 0.0<br/>samples = 2<br/>value = [0, 0, 2, 0]<br/>class = 2>, fillcolor="#399de5"] ;
30 -> 32 ;
33 [label=<x<SUB>2</SUB> &le; 1.5<br/>gini = 0.444<br/>samples = 3<br/>value = [1, 0, 2, 0]<br/>class = 2>, fillcolor="#9ccef2"] ;
27 -> 33 ;
34 [label=<gini = 0.0<br/>samples = 2<br/>value = [0, 0, 2, 0]<br/>class = 2>, fillcolor="#399de5"] ;
33 -> 34 ;
35 [label=<gini = 0.0<br/>samples = 1<br/>value = [1, 0, 0, 0]<br/>class = 0>, fillcolor="#e58139"] ;
33 -> 35 ;
36 [label=<gini = 0.0<br/>samples = 6<br/>value = [0, 0, 6, 0]<br/>class = 2>, fillcolor="#399de5"] ;
26 -> 36 ;
37 [label=<x<SUB>0</SUB> &le; 3.5<br/>gini = 0.444<br/>samples = 6<br/>value = [0, 4, 2, 0]<br/>class = 1>, fillcolor="#a3f29c"] ;
25 -> 37 ;
38 [label=<gini = 0.0<br/>samples = 2<br/>value = [0, 0, 2, 0]<br/>class = 2>, fillcolor="#399de5"] ;
37 -> 38 ;
39 [label=<gini = 0.0<br/>samples = 4<br/>value = [0, 4, 0, 0]<br/>class = 1>, fillcolor="#47e539"] ;
37 -> 39 ;
40 [label=<x<SUB>1</SUB> &le; 3.5<br/>gini = 0.408<br/>samples = 72<br/>value = [2, 53, 16, 1]<br/>class = 1>, fillcolor="#85ee7c"] ;
2 -> 40 ;
41 [label=<x<SUB>0</SUB> &le; 1.5<br/>gini = 0.328<br/>samples = 52<br/>value = [2, 42, 7, 1]<br/>class = 1>, fillcolor="#70eb65"] ;
40 -> 41 ;
42 [label=<x<SUB>1</SUB> &le; 0.5<br/>gini = 0.077<br/>samples = 25<br/>value = [0, 24, 1, 0]<br/>class = 1>, fillcolor="#4fe641"] ;
41 -> 42 ;
43 [label=<x<SUB>2</SUB> &le; 1.0<br/>gini = 0.32<br/>samples = 5<br/>value = [0, 4, 1, 0]<br/>class = 1>, fillcolor="#75ec6a"] ;
42 -> 43 ;
44 [label=<gini = 0.0<br/>samples = 1<br/>value = [0, 0, 1, 0]<br/>class = 2>, fillcolor="#399de5"] ;
43 -> 44 ;
45 [label=<gini = 0.0<br/>samples = 4<br/>value = [0, 4, 0, 0]<br/>class = 1>, fillcolor="#47e539"] ;
43 -> 45 ;
46 [label=<gini = 0.0<br/>samples = 20<br/>value = [0, 20, 0, 0]<br/>class = 1>, fillcolor="#47e539"] ;
42 -> 46 ;
47 [label=<x<SUB>0</SUB> &le; 2.5<br/>gini = 0.499<br/>samples = 27<br/>value = [2, 18, 6, 1]<br/>class = 1>, fillcolor="#96f08e"] ;
41 -> 47 ;
48 [label=<x<SUB>1</SUB> &le; 2.5<br/>gini = 0.444<br/>samples = 6<br/>value = [2, 0, 4, 0]<br/>class = 2>, fillcolor="#9ccef2"] ;
47 -> 48 ;
49 [label=<gini = 0.0<br/>samples = 4<br/>value = [0, 0, 4, 0]<br/>class = 2>, fillcolor="#399de5"] ;
48 -> 49 ;
50 [label=<gini = 0.0<br/>samples = 2<br/>value = [2, 0, 0, 0]<br/>class = 0>, fillcolor="#e58139"] ;
48 -> 50 ;
51 [label=<x<SUB>1</SUB> &le; 2.5<br/>gini = 0.254<br/>samples = 21<br/>value = [0, 18, 2, 1]<br/>class = 1>, fillcolor="#64e958"] ;
47 -> 51 ;
52 [label=<x<SUB>1</SUB> &le; 0.5<br/>gini = 0.111<br/>samples = 17<br/>value = [0, 16, 0, 1]<br/>class = 1>, fillcolor="#52e745"] ;
51 -> 52 ;
53 [label=<x<SUB>0</SUB> &le; 3.5<br/>gini = 0.375<br/>samples = 4<br/>value = [0, 3, 0, 1]<br/>class = 1>, fillcolor="#84ee7b"] ;
52 -> 53 ;
54 [label=<gini = 0.0<br/>samples = 3<br/>value = [0, 3, 0, 0]<br/>class = 1>, fillcolor="#47e539"] ;
53 -> 54 ;
55 [label=<gini = 0.0<br/>samples = 1<br/>value = [0, 0, 0, 1]<br/>class = 3>, fillcolor="#d739e5"] ;
53 -> 55 ;
56 [label=<gini = 0.0<br/>samples = 13<br/>value = [0, 13, 0, 0]<br/>class = 1>, fillcolor="#47e539"] ;
52 -> 56 ;
57 [label=<x<SUB>2</SUB> &le; 1.0<br/>gini = 0.5<br/>samples = 4<br/>value = [0, 2, 2, 0]<br/>class = 1>, fillcolor="#ffffff"] ;
51 -> 57 ;
58 [label=<gini = 0.0<br/>samples = 2<br/>value = [0, 0, 2, 0]<br/>class = 2>, fillcolor="#399de5"] ;
57 -> 58 ;
59 [label=<gini = 0.0<br/>samples = 2<br/>value = [0, 2, 0, 0]<br/>class = 1>, fillcolor="#47e539"] ;
57 -> 59 ;
60 [label=<x<SUB>0</SUB> &le; 2.5<br/>gini = 0.495<br/>samples = 20<br/>value = [0, 11, 9, 0]<br/>class = 1>, fillcolor="#defadb"] ;
40 -> 60 ;
61 [label=<x<SUB>2</SUB> &le; 1.0<br/>gini = 0.469<br/>samples = 16<br/>value = [0, 10, 6, 0]<br/>class = 1>, fillcolor="#b5f5b0"] ;
60 -> 61 ;
62 [label=<x<SUB>0</SUB> &le; 0.5<br/>gini = 0.494<br/>samples = 9<br/>value = [0, 4, 5, 0]<br/>class = 2>, fillcolor="#d7ebfa"] ;
61 -> 62 ;
63 [label=<gini = 0.0<br/>samples = 4<br/>value = [0, 4, 0, 0]<br/>class = 1>, fillcolor="#47e539"] ;
62 -> 63 ;
64 [label=<gini = 0.0<br/>samples = 5<br/>value = [0, 0, 5, 0]<br/>class = 2>, fillcolor="#399de5"] ;
62 -> 64 ;
65 [label=<x<SUB>0</SUB> &le; 0.5<br/>gini = 0.245<br/>samples = 7<br/>value = [0, 6, 1, 0]<br/>class = 1>, fillcolor="#66e95a"] ;
61 -> 65 ;
66 [label=<gini = 0.0<br/>samples = 1<br/>value = [0, 0, 1, 0]<br/>class = 2>, fillcolor="#399de5"] ;
65 -> 66 ;
67 [label=<gini = 0.0<br/>samples = 6<br/>value = [0, 6, 0, 0]<br/>class = 1>, fillcolor="#47e539"] ;
65 -> 67 ;
68 [label=<x<SUB>0</SUB> &le; 3.5<br/>gini = 0.375<br/>samples = 4<br/>value = [0, 1, 3, 0]<br/>class = 2>, fillcolor="#7bbeee"] ;
60 -> 68 ;
69 [label=<gini = 0.0<br/>samples = 3<br/>value = [0, 0, 3, 0]<br/>class = 2>, fillcolor="#399de5"] ;
68 -> 69 ;
70 [label=<gini = 0.0<br/>samples = 1<br/>value = [0, 1, 0, 0]<br/>class = 1>, fillcolor="#47e539"] ;
68 -> 70 ;
71 [label=<x<SUB>3</SUB> &le; 2.5<br/>gini = 0.602<br/>samples = 130<br/>value = [19, 72, 34, 5]<br/>class = 1>, fillcolor="#b6f5b1"] ;
1 -> 71 ;
72 [label=<x<SUB>0</SUB> &le; 3.5<br/>gini = 0.672<br/>samples = 45<br/>value = [9, 18, 16, 2]<br/>class = 1>, fillcolor="#f2fdf1"] ;
71 -> 72 ;
73 [label=<x<SUB>0</SUB> &le; 1.5<br/>gini = 0.669<br/>samples = 40<br/>value = [9, 18, 11, 2]<br/>class = 1>, fillcolor="#d3f9cf"] ;
72 -> 73 ;
74 [label=<x<SUB>2</SUB> &le; 0.5<br/>gini = 0.62<br/>samples = 20<br/>value = [4, 6, 10, 0]<br/>class = 2>, fillcolor="#c6e3f8"] ;
73 -> 74 ;
75 [label=<x<SUB>1</SUB> &le; 0.5<br/>gini = 0.569<br/>samples = 12<br/>value = [1, 6, 5, 0]<br/>class = 1>, fillcolor="#e5fbe3"] ;
74 -> 75 ;
76 [label=<x<SUB>0</SUB> &le; 0.5<br/>gini = 0.444<br/>samples = 3<br/>value = [1, 2, 0, 0]<br/>class = 1>, fillcolor="#a3f29c"] ;
75 -> 76 ;
77 [label=<gini = 0.0<br/>samples = 2<br/>value = [0, 2, 0, 0]<br/>class = 1>, fillcolor="#47e539"] ;
76 -> 77 ;
78 [label=<gini = 0.0<br/>samples = 1<br/>value = [1, 0, 0, 0]<br/>class = 0>, fillcolor="#e58139"] ;
76 -> 78 ;
79 [label=<x<SUB>1</SUB> &le; 1.5<br/>gini = 0.494<br/>samples = 9<br/>value = [0, 4, 5, 0]<br/>class = 2>, fillcolor="#d7ebfa"] ;
75 -> 79 ;
80 [label=<gini = 0.0<br/>samples = 3<br/>value = [0, 0, 3, 0]<br/>class = 2>, fillcolor="#399de5"] ;
79 -> 80 ;
81 [label=<x<SUB>0</SUB> &le; 0.5<br/>gini = 0.444<br/>samples = 6<br/>value = [0, 4, 2, 0]<br/>class = 1>, fillcolor="#a3f29c"] ;
79 -> 81 ;
82 [label=<x<SUB>1</SUB> &le; 2.5<br/>gini = 0.5<br/>samples = 4<br/>value = [0, 2, 2, 0]<br/>class = 1>, fillcolor="#ffffff"] ;
81 -> 82 ;
83 [label=<gini = 0.0<br/>samples = 1<br/>value = [0, 1, 0, 0]<br/>class = 1>, fillcolor="#47e539"] ;
82 -> 83 ;
84 [label=<gini = 0.444<br/>samples = 3<br/>value = [0, 1, 2, 0]<br/>class = 2>, fillcolor="#9ccef2"] ;
82 -> 84 ;
85 [label=<gini = 0.0<br/>samples = 2<br/>value = [0, 2, 0, 0]<br/>class = 1>, fillcolor="#47e539"] ;
81 -> 85 ;
86 [label=<x<SUB>0</SUB> &le; 0.5<br/>gini = 0.469<br/>samples = 8<br/>value = [3, 0, 5, 0]<br/>class = 2>, fillcolor="#b0d8f5"] ;
74 -> 86 ;
87 [label=<x<SUB>1</SUB> &le; 1.0<br/>gini = 0.375<br/>samples = 4<br/>value = [3, 0, 1, 0]<br/>class = 0>, fillcolor="#eeab7b"] ;
86 -> 87 ;
88 [label=<gini = 0.0<br/>samples = 1<br/>value = [0, 0, 1, 0]<br/>class = 2>, fillcolor="#399de5"] ;
87 -> 88 ;
89 [label=<gini = 0.0<br/>samples = 3<br/>value = [3, 0, 0, 0]<br/>class = 0>, fillcolor="#e58139"] ;
87 -> 89 ;
90 [label=<gini = 0.0<br/>samples = 4<br/>value = [0, 0, 4, 0]<br/>class = 2>, fillcolor="#399de5"] ;
86 -> 90 ;
91 [label=<x<SUB>1</SUB> &le; 1.5<br/>gini = 0.565<br/>samples = 20<br/>value = [5, 12, 1, 2]<br/>class = 1>, fillcolor="#a9f3a3"] ;
73 -> 91 ;
92 [label=<x<SUB>1</SUB> &le; 0.5<br/>gini = 0.719<br/>samples = 8<br/>value = [3, 2, 1, 2]<br/>class = 0>, fillcolor="#fbeade"] ;
91 -> 92 ;
93 [label=<x<SUB>0</SUB> &le; 2.5<br/>gini = 0.444<br/>samples = 3<br/>value = [0, 2, 1, 0]<br/>class = 1>, fillcolor="#a3f29c"] ;
92 -> 93 ;
94 [label=<gini = 0.0<br/>samples = 1<br/>value = [0, 0, 1, 0]<br/>class = 2>, fillcolor="#399de5"] ;
93 -> 94 ;
95 [label=<gini = 0.0<br/>samples = 2<br/>value = [0, 2, 0, 0]<br/>class = 1>, fillcolor="#47e539"] ;
93 -> 95 ;
96 [label=<x<SUB>0</SUB> &le; 2.5<br/>gini = 0.48<br/>samples = 5<br/>value = [3, 0, 0, 2]<br/>class = 0>, fillcolor="#f6d5bd"] ;
92 -> 96 ;
97 [label=<gini = 0.0<br/>samples = 2<br/>value = [0, 0, 0, 2]<br/>class = 3>, fillcolor="#d739e5"] ;
96 -> 97 ;
98 [label=<gini = 0.0<br/>samples = 3<br/>value = [3, 0, 0, 0]<br/>class = 0>, fillcolor="#e58139"] ;
96 -> 98 ;
99 [label=<x<SUB>1</SUB> &le; 2.5<br/>gini = 0.278<br/>samples = 12<br/>value = [2, 10, 0, 0]<br/>class = 1>, fillcolor="#6cea61"] ;
91 -> 99 ;
100 [label=<x<SUB>0</SUB> &le; 2.5<br/>gini = 0.444<br/>samples = 6<br/>value = [2, 4, 0, 0]<br/>class = 1>, fillcolor="#a3f29c"] ;
99 -> 100 ;
101 [label=<gini = 0.0<br/>samples = 2<br/>value = [2, 0, 0, 0]<br/>class = 0>, fillcolor="#e58139"] ;
100 -> 101 ;
102 [label=<gini = 0.0<br/>samples = 4<br/>value = [0, 4, 0, 0]<br/>class = 1>, fillcolor="#47e539"] ;
100 -> 102 ;
103 [label=<gini = 0.0<br/>samples = 6<br/>value = [0, 6, 0, 0]<br/>class = 1>, fillcolor="#47e539"] ;
99 -> 103 ;
104 [label=<gini = 0.0<br/>samples = 5<br/>value = [0, 0, 5, 0]<br/>class = 2>, fillcolor="#399de5"] ;
72 -> 104 ;
105 [label=<x<SUB>2</SUB> &le; 1.5<br/>gini = 0.536<br/>samples = 85<br/>value = [10, 54, 18, 3]<br/>class = 1>, fillcolor="#9cf195"] ;
71 -> 105 ;
106 [label=<x<SUB>0</SUB> &le; 3.5<br/>gini = 0.487<br/>samples = 61<br/>value = [6, 42, 10, 3]<br/>class = 1>, fillcolor="#8cef83"] ;
105 -> 106 ;
107 [label=<x<SUB>1</SUB> &le; 1.5<br/>gini = 0.586<br/>samples = 44<br/>value = [6, 26, 9, 3]<br/>class = 1>, fillcolor="#a6f29f"] ;
106 -> 107 ;
108 [label=<x<SUB>0</SUB> &le; 2.5<br/>gini = 0.32<br/>samples = 16<br/>value = [2, 13, 1, 0]<br/>class = 1>, fillcolor="#6eeb63"] ;
107 -> 108 ;
109 [label=<x<SUB>2</SUB> &le; 0.5<br/>gini = 0.255<br/>samples = 14<br/>value = [1, 12, 1, 0]<br/>class = 1>, fillcolor="#63e957"] ;
108 -> 109 ;
110 [label=<gini = 0.0<br/>samples = 9<br/>value = [0, 9, 0, 0]<br/>class = 1>, fillcolor="#47e539"] ;
109 -> 110 ;
111 [label=<x<SUB>0</SUB> &le; 0.5<br/>gini = 0.56<br/>samples = 5<br/>value = [1, 3, 1, 0]<br/>class = 1>, fillcolor="#a3f29c"] ;
109 -> 111 ;
112 [label=<gini = 0.0<br/>samples = 1<br/>value = [0, 0, 1, 0]<br/>class = 2>, fillcolor="#399de5"] ;
111 -> 112 ;
113 [label=<x<SUB>1</SUB> &le; 0.5<br/>gini = 0.375<br/>samples = 4<br/>value = [1, 3, 0, 0]<br/>class = 1>, fillcolor="#84ee7b"] ;
111 -> 113 ;
114 [label=<gini = 0.0<br/>samples = 3<br/>value = [0, 3, 0, 0]<br/>class = 1>, fillcolor="#47e539"] ;
113 -> 114 ;
115 [label=<gini = 0.0<br/>samples = 1<br/>value = [1, 0, 0, 0]<br/>class = 0>, fillcolor="#e58139"] ;
113 -> 115 ;
116 [label=<x<SUB>2</SUB> &le; 0.5<br/>gini = 0.5<br/>samples = 2<br/>value = [1, 1, 0, 0]<br/>class = 0>, fillcolor="#ffffff"] ;
108 -> 116 ;
117 [label=<gini = 0.0<br/>samples = 1<br/>value = [1, 0, 0, 0]<br/>class = 0>, fillcolor="#e58139"] ;
116 -> 117 ;
118 [label=<gini = 0.0<br/>samples = 1<br/>value = [0, 1, 0, 0]<br/>class = 1>, fillcolor="#47e539"] ;
116 -> 118 ;
119 [label=<x<SUB>0</SUB> &le; 2.5<br/>gini = 0.671<br/>samples = 28<br/>value = [4, 13, 8, 3]<br/>class = 1>, fillcolor="#d1f8ce"] ;
107 -> 119 ;
120 [label=<x<SUB>1</SUB> &le; 3.5<br/>gini = 0.698<br/>samples = 18<br/>value = [2, 6, 7, 3]<br/>class = 2>, fillcolor="#eef7fd"] ;
119 -> 120 ;
121 [label=<x<SUB>0</SUB> &le; 1.5<br/>gini = 0.615<br/>samples = 13<br/>value = [2, 6, 5, 0]<br/>class = 1>, fillcolor="#e8fce6"] ;
120 -> 121 ;
122 [label=<x<SUB>2</SUB> &le; 0.5<br/>gini = 0.571<br/>samples = 7<br/>value = [2, 4, 1, 0]<br/>class = 1>, fillcolor="#b5f5b0"] ;
121 -> 122 ;
123 [label=<gini = 0.0<br/>samples = 2<br/>value = [2, 0, 0, 0]<br/>class = 0>, fillcolor="#e58139"] ;
122 -> 123 ;
124 [label=<gini = 0.32<br/>samples = 5<br/>value = [0, 4, 1, 0]<br/>class = 1>, fillcolor="#75ec6a"] ;
122 -> 124 ;
125 [label=<x<SUB>2</SUB> &le; 0.5<br/>gini = 0.444<br/>samples = 6<br/>value = [0, 2, 4, 0]<br/>class = 2>, fillcolor="#9ccef2"] ;
121 -> 125 ;
126 [label=<gini = 0.444<br/>samples = 3<br/>value = [0, 2, 1, 0]<br/>class = 1>, fillcolor="#a3f29c"] ;
125 -> 126 ;
127 [label=<gini = 0.0<br/>samples = 3<br/>value = [0, 0, 3, 0]<br/>class = 2>, fillcolor="#399de5"] ;
125 -> 127 ;
128 [label=<x<SUB>0</SUB> &le; 1.5<br/>gini = 0.48<br/>samples = 5<br/>value = [0, 0, 2, 3]<br/>class = 3>, fillcolor="#f2bdf6"] ;
120 -> 128 ;
129 [label=<gini = 0.0<br/>samples = 2<br/>value = [0, 0, 2, 0]<br/>class = 2>, fillcolor="#399de5"] ;
128 -> 129 ;
130 [label=<gini = 0.0<br/>samples = 3<br/>value = [0, 0, 0, 3]<br/>class = 3>, fillcolor="#d739e5"] ;
128 -> 130 ;
131 [label=<x<SUB>1</SUB> &le; 2.5<br/>gini = 0.46<br/>samples = 10<br/>value = [2, 7, 1, 0]<br/>class = 1>, fillcolor="#8cef83"] ;
119 -> 131 ;
132 [label=<x<SUB>2</SUB> &le; 0.5<br/>gini = 0.444<br/>samples = 3<br/>value = [2, 0, 1, 0]<br/>class = 0>, fillcolor="#f2c09c"] ;
131 -> 132 ;
133 [label=<gini = 0.0<br/>samples = 1<br/>value = [0, 0, 1, 0]<br/>class = 2>, fillcolor="#399de5"] ;
132 -> 133 ;
134 [label=<gini = 0.0<br/>samples = 2<br/>value = [2, 0, 0, 0]<br/>class = 0>, fillcolor="#e58139"] ;
132 -> 134 ;
135 [label=<gini = 0.0<br/>samples = 7<br/>value = [0, 7, 0, 0]<br/>class = 1>, fillcolor="#47e539"] ;
131 -> 135 ;
136 [label=<x<SUB>2</SUB> &le; 0.5<br/>gini = 0.111<br/>samples = 17<br/>value = [0, 16, 1, 0]<br/>class = 1>, fillcolor="#52e745"] ;
106 -> 136 ;
137 [label=<x<SUB>1</SUB> &le; 1.5<br/>gini = 0.278<br/>samples = 6<br/>value = [0, 5, 1, 0]<br/>class = 1>, fillcolor="#6cea61"] ;
136 -> 137 ;
138 [label=<gini = 0.0<br/>samples = 4<br/>value = [0, 4, 0, 0]<br/>class = 1>, fillcolor="#47e539"] ;
137 -> 138 ;
139 [label=<x<SUB>1</SUB> &le; 3.0<br/>gini = 0.5<br/>samples = 2<br/>value = [0, 1, 1, 0]<br/>class = 1>, fillcolor="#ffffff"] ;
137 -> 139 ;
140 [label=<gini = 0.0<br/>samples = 1<br/>value = [0, 0, 1, 0]<br/>class = 2>, fillcolor="#399de5"] ;
139 -> 140 ;
141 [label=<gini = 0.0<br/>samples = 1<br/>value = [0, 1, 0, 0]<br/>class = 1>, fillcolor="#47e539"] ;
139 -> 141 ;
142 [label=<gini = 0.0<br/>samples = 11<br/>value = [0, 11, 0, 0]<br/>class = 1>, fillcolor="#47e539"] ;
136 -> 142 ;
143 [label=<x<SUB>0</SUB> &le; 3.5<br/>gini = 0.611<br/>samples = 24<br/>value = [4, 12, 8, 0]<br/>class = 1>, fillcolor="#d1f8ce"] ;
105 -> 143 ;
144 [label=<x<SUB>0</SUB> &le; 0.5<br/>gini = 0.532<br/>samples = 19<br/>value = [4, 12, 3, 0]<br/>class = 1>, fillcolor="#9df195"] ;
143 -> 144 ;
145 [label=<x<SUB>1</SUB> &le; 2.0<br/>gini = 0.49<br/>samples = 7<br/>value = [0, 4, 3, 0]<br/>class = 1>, fillcolor="#d1f8ce"] ;
144 -> 145 ;
146 [label=<gini = 0.0<br/>samples = 2<br/>value = [0, 0, 2, 0]<br/>class = 2>, fillcolor="#399de5"] ;
145 -> 146 ;
147 [label=<x<SUB>1</SUB> &le; 3.5<br/>gini = 0.32<br/>samples = 5<br/>value = [0, 4, 1, 0]<br/>class = 1>, fillcolor="#75ec6a"] ;
145 -> 147 ;
148 [label=<gini = 0.0<br/>samples = 4<br/>value = [0, 4, 0, 0]<br/>class = 1>, fillcolor="#47e539"] ;
147 -> 148 ;
149 [label=<gini = 0.0<br/>samples = 1<br/>value = [0, 0, 1, 0]<br/>class = 2>, fillcolor="#399de5"] ;
147 -> 149 ;
150 [label=<x<SUB>1</SUB> &le; 0.5<br/>gini = 0.444<br/>samples = 12<br/>value = [4, 8, 0, 0]<br/>class = 1>, fillcolor="#a3f29c"] ;
144 -> 150 ;
151 [label=<x<SUB>0</SUB> &le; 2.5<br/>gini = 0.5<br/>samples = 4<br/>value = [2, 2, 0, 0]<br/>class = 0>, fillcolor="#ffffff"] ;
150 -> 151 ;
152 [label=<gini = 0.0<br/>samples = 2<br/>value = [0, 2, 0, 0]<br/>class = 1>, fillcolor="#47e539"] ;
151 -> 152 ;
153 [label=<gini = 0.0<br/>samples = 2<br/>value = [2, 0, 0, 0]<br/>class = 0>, fillcolor="#e58139"] ;
151 -> 153 ;
154 [label=<x<SUB>0</SUB> &le; 2.5<br/>gini = 0.375<br/>samples = 8<br/>value = [2, 6, 0, 0]<br/>class = 1>, fillcolor="#84ee7b"] ;
150 -> 154 ;
155 [label=<x<SUB>1</SUB> &le; 3.5<br/>gini = 0.444<br/>samples = 6<br/>value = [2, 4, 0, 0]<br/>class = 1>, fillcolor="#a3f29c"] ;
154 -> 155 ;
156 [label=<x<SUB>0</SUB> &le; 1.5<br/>gini = 0.375<br/>samples = 4<br/>value = [1, 3, 0, 0]<br/>class = 1>, fillcolor="#84ee7b"] ;
155 -> 156 ;
157 [label=<gini = 0.0<br/>samples = 2<br/>value = [0, 2, 0, 0]<br/>class = 1>, fillcolor="#47e539"] ;
156 -> 157 ;
158 [label=<gini = 0.5<br/>samples = 2<br/>value = [1, 1, 0, 0]<br/>class = 0>, fillcolor="#ffffff"] ;
156 -> 158 ;
159 [label=<x<SUB>0</SUB> &le; 1.5<br/>gini = 0.5<br/>samples = 2<br/>value = [1, 1, 0, 0]<br/>class = 0>, fillcolor="#ffffff"] ;
155 -> 159 ;
160 [label=<gini = 0.0<br/>samples = 1<br/>value = [1, 0, 0, 0]<br/>class = 0>, fillcolor="#e58139"] ;
159 -> 160 ;
161 [label=<gini = 0.0<br/>samples = 1<br/>value = [0, 1, 0, 0]<br/>class = 1>, fillcolor="#47e539"] ;
159 -> 161 ;
162 [label=<gini = 0.0<br/>samples = 2<br/>value = [0, 2, 0, 0]<br/>class = 1>, fillcolor="#47e539"] ;
154 -> 162 ;
163 [label=<gini = 0.0<br/>samples = 5<br/>value = [0, 0, 5, 0]<br/>class = 2>, fillcolor="#399de5"] ;
143 -> 163 ;
164 [label=<x<SUB>0</SUB> &le; 0.5<br/>gini = 0.672<br/>samples = 71<br/>value = [18, 31, 19, 3]<br/>class = 1>, fillcolor="#d5f9d1"] ;
0 -> 164 [labeldistance=2.5, labelangle=-45, headlabel="False"] ;
165 [label=<x<SUB>1</SUB> &le; 0.5<br/>gini = 0.463<br/>samples = 11<br/>value = [4, 0, 7, 0]<br/>class = 2>, fillcolor="#aad5f4"] ;
164 -> 165 ;
166 [label=<gini = 0.0<br/>samples = 5<br/>value = [0, 0, 5, 0]<br/>class = 2>, fillcolor="#399de5"] ;
165 -> 166 ;
167 [label=<x<SUB>3</SUB> &le; 0.5<br/>gini = 0.444<br/>samples = 6<br/>value = [4, 0, 2, 0]<br/>class = 0>, fillcolor="#f2c09c"] ;
165 -> 167 ;
168 [label=<gini = 0.0<br/>samples = 2<br/>value = [0, 0, 2, 0]<br/>class = 2>, fillcolor="#399de5"] ;
167 -> 168 ;
169 [label=<gini = 0.0<br/>samples = 4<br/>value = [4, 0, 0, 0]<br/>class = 0>, fillcolor="#e58139"] ;
167 -> 169 ;
170 [label=<x<SUB>1</SUB> &le; 0.5<br/>gini = 0.636<br/>samples = 60<br/>value = [14, 31, 12, 3]<br/>class = 1>, fillcolor="#bbf5b6"] ;
164 -> 170 ;
171 [label=<x<SUB>0</SUB> &le; 3.5<br/>gini = 0.337<br/>samples = 14<br/>value = [0, 11, 0, 3]<br/>class = 1>, fillcolor="#79ec6f"] ;
170 -> 171 ;
172 [label=<gini = 0.0<br/>samples = 11<br/>value = [0, 11, 0, 0]<br/>class = 1>, fillcolor="#47e539"] ;
171 -> 172 ;
173 [label=<gini = 0.0<br/>samples = 3<br/>value = [0, 0, 0, 3]<br/>class = 3>, fillcolor="#d739e5"] ;
171 -> 173 ;
174 [label=<x<SUB>1</SUB> &le; 3.5<br/>gini = 0.65<br/>samples = 46<br/>value = [14, 20, 12, 0]<br/>class = 1>, fillcolor="#dcfada"] ;
170 -> 174 ;
175 [label=<x<SUB>3</SUB> &le; 0.5<br/>gini = 0.637<br/>samples = 29<br/>value = [13, 10, 6, 0]<br/>class = 0>, fillcolor="#fbebe0"] ;
174 -> 175 ;
176 [label=<x<SUB>1</SUB> &le; 2.5<br/>gini = 0.512<br/>samples = 11<br/>value = [7, 1, 3, 0]<br/>class = 0>, fillcolor="#f2c09c"] ;
175 -> 176 ;
177 [label=<x<SUB>1</SUB> &le; 1.5<br/>gini = 0.278<br/>samples = 6<br/>value = [5, 1, 0, 0]<br/>class = 0>, fillcolor="#ea9a61"] ;
176 -> 177 ;
178 [label=<x<SUB>0</SUB> &le; 1.5<br/>gini = 0.5<br/>samples = 2<br/>value = [1, 1, 0, 0]<br/>class = 0>, fillcolor="#ffffff"] ;
177 -> 178 ;
179 [label=<gini = 0.0<br/>samples = 1<br/>value = [0, 1, 0, 0]<br/>class = 1>, fillcolor="#47e539"] ;
178 -> 179 ;
180 [label=<gini = 0.0<br/>samples = 1<br/>value = [1, 0, 0, 0]<br/>class = 0>, fillcolor="#e58139"] ;
178 -> 180 ;
181 [label=<gini = 0.0<br/>samples = 4<br/>value = [4, 0, 0, 0]<br/>class = 0>, fillcolor="#e58139"] ;
177 -> 181 ;
182 [label=<x<SUB>0</SUB> &le; 1.5<br/>gini = 0.48<br/>samples = 5<br/>value = [2, 0, 3, 0]<br/>class = 2>, fillcolor="#bddef6"] ;
176 -> 182 ;
183 [label=<gini = 0.0<br/>samples = 3<br/>value = [0, 0, 3, 0]<br/>class = 2>, fillcolor="#399de5"] ;
182 -> 183 ;
184 [label=<gini = 0.0<br/>samples = 2<br/>value = [2, 0, 0, 0]<br/>class = 0>, fillcolor="#e58139"] ;
182 -> 184 ;
185 [label=<x<SUB>3</SUB> &le; 1.5<br/>gini = 0.611<br/>samples = 18<br/>value = [6, 9, 3, 0]<br/>class = 1>, fillcolor="#d1f8ce"] ;
175 -> 185 ;
186 [label=<x<SUB>0</SUB> &le; 2.5<br/>gini = 0.569<br/>samples = 12<br/>value = [2, 7, 3, 0]<br/>class = 1>, fillcolor="#adf3a7"] ;
185 -> 186 ;
187 [label=<x<SUB>1</SUB> &le; 1.5<br/>gini = 0.469<br/>samples = 8<br/>value = [0, 5, 3, 0]<br/>class = 1>, fillcolor="#b5f5b0"] ;
186 -> 187 ;
188 [label=<x<SUB>0</SUB> &le; 1.5<br/>gini = 0.32<br/>samples = 5<br/>value = [0, 4, 1, 0]<br/>class = 1>, fillcolor="#75ec6a"] ;
187 -> 188 ;
189 [label=<gini = 0.0<br/>samples = 1<br/>value = [0, 0, 1, 0]<br/>class = 2>, fillcolor="#399de5"] ;
188 -> 189 ;
190 [label=<gini = 0.0<br/>samples = 4<br/>value = [0, 4, 0, 0]<br/>class = 1>, fillcolor="#47e539"] ;
188 -> 190 ;
191 [label=<x<SUB>1</SUB> &le; 2.5<br/>gini = 0.444<br/>samples = 3<br/>value = [0, 1, 2, 0]<br/>class = 2>, fillcolor="#9ccef2"] ;
187 -> 191 ;
192 [label=<gini = 0.0<br/>samples = 2<br/>value = [0, 0, 2, 0]<br/>class = 2>, fillcolor="#399de5"] ;
191 -> 192 ;
193 [label=<gini = 0.0<br/>samples = 1<br/>value = [0, 1, 0, 0]<br/>class = 1>, fillcolor="#47e539"] ;
191 -> 193 ;
194 [label=<x<SUB>1</SUB> &le; 2.0<br/>gini = 0.5<br/>samples = 4<br/>value = [2, 2, 0, 0]<br/>class = 0>, fillcolor="#ffffff"] ;
186 -> 194 ;
195 [label=<gini = 0.0<br/>samples = 2<br/>value = [2, 0, 0, 0]<br/>class = 0>, fillcolor="#e58139"] ;
194 -> 195 ;
196 [label=<gini = 0.0<br/>samples = 2<br/>value = [0, 2, 0, 0]<br/>class = 1>, fillcolor="#47e539"] ;
194 -> 196 ;
197 [label=<x<SUB>0</SUB> &le; 3.5<br/>gini = 0.444<br/>samples = 6<br/>value = [4, 2, 0, 0]<br/>class = 0>, fillcolor="#f2c09c"] ;
185 -> 197 ;
198 [label=<x<SUB>0</SUB> &le; 2.5<br/>gini = 0.5<br/>samples = 4<br/>value = [2, 2, 0, 0]<br/>class = 0>, fillcolor="#ffffff"] ;
197 -> 198 ;
199 [label=<x<SUB>1</SUB> &le; 2.0<br/>gini = 0.444<br/>samples = 3<br/>value = [2, 1, 0, 0]<br/>class = 0>, fillcolor="#f2c09c"] ;
198 -> 199 ;
200 [label=<x<SUB>0</SUB> &le; 1.5<br/>gini = 0.5<br/>samples = 2<br/>value = [1, 1, 0, 0]<br/>class = 0>, fillcolor="#ffffff"] ;
199 -> 200 ;
201 [label=<gini = 0.0<br/>samples = 1<br/>value = [0, 1, 0, 0]<br/>class = 1>, fillcolor="#47e539"] ;
200 -> 201 ;
202 [label=<gini = 0.0<br/>samples = 1<br/>value = [1, 0, 0, 0]<br/>class = 0>, fillcolor="#e58139"] ;
200 -> 202 ;
203 [label=<gini = 0.0<br/>samples = 1<br/>value = [1, 0, 0, 0]<br/>class = 0>, fillcolor="#e58139"] ;
199 -> 203 ;
204 [label=<gini = 0.0<br/>samples = 1<br/>value = [0, 1, 0, 0]<br/>class = 1>, fillcolor="#47e539"] ;
198 -> 204 ;
205 [label=<gini = 0.0<br/>samples = 2<br/>value = [2, 0, 0, 0]<br/>class = 0>, fillcolor="#e58139"] ;
197 -> 205 ;
206 [label=<x<SUB>3</SUB> &le; 0.5<br/>gini = 0.526<br/>samples = 17<br/>value = [1, 10, 6, 0]<br/>class = 1>, fillcolor="#bcf6b7"] ;
174 -> 206 ;
207 [label=<x<SUB>0</SUB> &le; 2.5<br/>gini = 0.219<br/>samples = 8<br/>value = [1, 7, 0, 0]<br/>class = 1>, fillcolor="#61e955"] ;
206 -> 207 ;
208 [label=<gini = 0.0<br/>samples = 4<br/>value = [0, 4, 0, 0]<br/>class = 1>, fillcolor="#47e539"] ;
207 -> 208 ;
209 [label=<x<SUB>0</SUB> &le; 3.5<br/>gini = 0.375<br/>samples = 4<br/>value = [1, 3, 0, 0]<br/>class = 1>, fillcolor="#84ee7b"] ;
207 -> 209 ;
210 [label=<gini = 0.0<br/>samples = 1<br/>value = [1, 0, 0, 0]<br/>class = 0>, fillcolor="#e58139"] ;
209 -> 210 ;
211 [label=<gini = 0.0<br/>samples = 3<br/>value = [0, 3, 0, 0]<br/>class = 1>, fillcolor="#47e539"] ;
209 -> 211 ;
212 [label=<x<SUB>3</SUB> &le; 1.5<br/>gini = 0.444<br/>samples = 9<br/>value = [0, 3, 6, 0]<br/>class = 2>, fillcolor="#9ccef2"] ;
206 -> 212 ;
213 [label=<x<SUB>0</SUB> &le; 1.5<br/>gini = 0.49<br/>samples = 7<br/>value = [0, 3, 4, 0]<br/>class = 2>, fillcolor="#cee6f8"] ;
212 -> 213 ;
214 [label=<gini = 0.0<br/>samples = 1<br/>value = [0, 1, 0, 0]<br/>class = 1>, fillcolor="#47e539"] ;
213 -> 214 ;
215 [label=<x<SUB>0</SUB> &le; 2.5<br/>gini = 0.444<br/>samples = 6<br/>value = [0, 2, 4, 0]<br/>class = 2>, fillcolor="#9ccef2"] ;
213 -> 215 ;
216 [label=<gini = 0.0<br/>samples = 3<br/>value = [0, 0, 3, 0]<br/>class = 2>, fillcolor="#399de5"] ;
215 -> 216 ;
217 [label=<x<SUB>0</SUB> &le; 3.5<br/>gini = 0.444<br/>samples = 3<br/>value = [0, 2, 1, 0]<br/>class = 1>, fillcolor="#a3f29c"] ;
215 -> 217 ;
218 [label=<gini = 0.0<br/>samples = 2<br/>value = [0, 2, 0, 0]<br/>class = 1>, fillcolor="#47e539"] ;
217 -> 218 ;
219 [label=<gini = 0.0<br/>samples = 1<br/>value = [0, 0, 1, 0]<br/>class = 2>, fillcolor="#399de5"] ;
217 -> 219 ;
220 [label=<gini = 0.0<br/>samples = 2<br/>value = [0, 0, 2, 0]<br/>class = 2>, fillcolor="#399de5"] ;
212 -> 220 ;
}