digraph Tree {
node [shape=box, style="filled, rounded", color="black", fontname="helvetica"] ;
edge [fontname="helvetica"] ;
0 [label=<x<SUB>2</SUB> &le; 0.5<br/>gini = 0.757<br/>samples = 160<br/>value = [9, 27, 65, 15, 21, 23]<br/>class = 2>, fillcolor="#c6f8db"] ;
1 [label=<x<SUB>0</SUB> &le; 1.5<br/>gini = 0.789<br/>samples = 46<br/>value = [4, 16, 5, 7, 6, 8]<br/>class = 1>, fillcolor="#eafad5"] ;
0 -> 1 [labeldistance=2.5, labelangle=45, headlabel="True"] ;
2 [label=<x<SUB>1</SUB> &le; 1.0<br/>gini = 0.632<br/>samples = 19<br/>value = [0, 9, 0, 6, 0, 4]<br/>class = 1>, fillcolor="#e8f9d1"] ;
1 -> 2 ;
3 [label=<x<SUB>0</SUB> &le; 0.5<br/>gini = 0.444<br/>samples = 6<br/>value = [0, 2, 0, 0, 0, 4]<br/>class = 5>, fillcolor="#f29cce"] ;
2 -> 3 ;
4 [label=<gini = 0.0<br/>samples = 2<br/>value = [0, 2, 0, 0, 0, 0]<br/>class = 1>, fillcolor="#9de539"] ;
3 -> 4 ;
5 [label=<gini = 0.0<br/>samples = 4<br/>value = [0, 0, 0, 0, 0, 4]<br/>class = 5>, fillcolor="#e5399d"] ;
3 -> 5 ;
6 [label=<x<SUB>3</SUB> &le; 2.5<br/>gini = 0.497<br/>samples = 13<br/>value = [0, 7, 0, 6, 0, 0]<br/>class = 1>, fillcolor="#f1fbe3"] ;
2 -> 6 ;
7 [label=<x<SUB>0</SUB> &le; 0.5<br/>gini = 0.469<br/>samples = 8<br/>value = [0, 3, 0, 5, 0, 0]<br/>class = 3>, fillcolor="#b0d8f5"] ;
6 -> 7 ;
8 [label=<gini = 0.0<br/>samples = 2<br/>value = [0, 0, 0, 2, 0, 0]<br/>class = 3>, fillcolor="#399de5"] ;
7 -> 8 ;
9 [label=<x<SUB>1</SUB> &le; 2.5<br/>gini = 0.5<br/>samples = 6<br/>value = [0, 3, 0, 3, 0, 0]<br/>class = 1>, fillcolor="#ffffff"] ;
7 -> 9 ;
10 [label=<gini = 0.0<br/>samples = 1<br/>value = [0, 0, 0, 1, 0, 0]<br/>class = 3>, fillcolor="#399de5"] ;
9 -> 10 ;
11 [label=<x<SUB>3</SUB> &le; 1.5<br/>gini = 0.48<br/>samples = 5<br/>value = [0, 3, 0, 2, 0, 0]<br/>class = 1>, fillcolor="#def6bd"] ;
9 -> 11 ;
12 [label=<gini = 0.0<br/>samples = 2<br/>value = [0, 2, 0, 0, 0, 0]<br/>class = 1>, fillcolor="#9de539"] ;
11 -> 12 ;
13 [label=<x<SUB>1</SUB> &le; 3.5<br/>gini = 0.444<br/>samples = 3<br/>value = [0, 1, 0, 2, 0, 0]<br/>class = 3>, fillcolor="#9ccef2"] ;
11 -> 13 ;
14 [label=<gini = 0.0<br/>samples = 2<br/>value = [0, 0, 0, 2, 0, 0]<br/>class = 3>, fillcolor="#399de5"] ;
13 -> 14 ;
15 [label=<gini = 0.0<br/>samples = 1<br/>value = [0, 1, 0, 0, 0, 0]<br/>class = 1>, fillcolor="#9de539"] ;
13 -> 15 ;
16 [label=<x<SUB>0</SUB> &le; 0.5<br/>gini = 0.32<br/>samples = 5<br/>value = [0, 4, 0, 1, 0, 0]<br/>class = 1>, fillcolor="#b6ec6a"] ;
6 -> 16 ;
17 [label=<gini = 0.0<br/>samples = 4<br/>value = [0, 4, 0, 0, 0, 0]<br/>class = 1>, fillcolor="#9de539"] ;
16 -> 17 ;
18 [label=<gini = 0.0<br/>samples = 1<br/>value = [0, 0, 0, 1, 0, 0]<br/>class = 3>, fillcolor="#399de5"] ;
16 -> 18 ;
19 [label=<x<SUB>3</SUB> &le; 2.5<br/>gini = 0.804<br/>samples = 27<br/>value = [4, 7, 5, 1, 6, 4]<br/>class = 1>, fillcolor="#fafef6"] ;
1 -> 19 ;
20 [label=<x<SUB>3</SUB> &le; 1.5<br/>gini = 0.785<br/>samples = 21<br/>value = [3, 7, 4, 1, 2, 4]<br/>class = 1>, fillcolor="#eefadc"] ;
19 -> 20 ;
21 [label=<x<SUB>1</SUB> &le; 0.5<br/>gini = 0.691<br/>samples = 9<br/>value = [0, 2, 4, 0, 2, 1]<br/>class = 2>, fillcolor="#c6f8db"] ;
20 -> 21 ;
22 [label=<x<SUB>0</SUB> &le; 3.0<br/>gini = 0.444<br/>samples = 3<br/>value = [0, 0, 2, 0, 0, 1]<br/>class = 2>, fillcolor="#9cf2c0"] ;
21 -> 22 ;
23 [label=<gini = 0.0<br/>samples = 2<br/>value = [0, 0, 2, 0, 0, 0]<br/>class = 2>, fillcolor="#39e581"] ;
22 -> 23 ;
24 [label=<gini = 0.0<br/>samples = 1<br/>value = [0, 0, 0, 0, 0, 1]<br/>class = 5>, fillcolor="#e5399d"] ;
22 -> 24 ;
25 [label=<x<SUB>0</SUB> &le; 3.0<br/>gini = 0.667<br/>samples = 6<br/>value = [0, 2, 2, 0, 2, 0]<br/>class = 1>, fillcolor="#ffffff"] ;
21 -> 25 ;
26 [label=<x<SUB>1</SUB> &le; 3.0<br/>gini = 0.444<br/>samples = 3<br/>value = [0, 2, 0, 0, 1, 0]<br/>class = 1>, fillcolor="#cef29c"] ;
25 -> 26 ;
27 [label=<gini = 0.0<br/>samples = 2<br/>value = [0, 2, 0, 0, 0, 0]<br/>class = 1>, fillcolor="#9de539"] ;
26 -> 27 ;
28 [label=<gini = 0.0<br/>samples = 1<br/>value = [0, 0, 0, 0, 1, 0]<br/>class = 4>, fillcolor="#8139e5"] ;
26 -> 28 ;
29 [label=<x<SUB>1</SUB> &le; 2.5<br/>gini = 0.444<br/>samples = 3<br/>value = [0, 0, 2, 0, 1, 0]<br/>class = 2>, fillcolor="#9cf2c0"] ;
25 -> 29 ;
30 [label=<gini = 0.0<br/>samples = 1<br/>value = [0, 0, 0, 0, 1, 0]<br/>class = 4>, fillcolor="#8139e5"] ;
29 -> 30 ;
31 [label=<gini = 0.0<br/>samples = 2<br/>value = [0, 0, 2, 0, 0, 0]<br/>class = 2>, fillcolor="#39e581"] ;
29 -> 31 ;
32 [label=<x<SUB>1</SUB> &le; 3.5<br/>gini = 0.694<br/>samples = 12<br/>value = [3, 5, 0, 1, 0, 3]<br/>class = 1>, fillcolor="#e9f9d3"] ;
20 -> 32 ;
33 [label=<x<SUB>0</SUB> &le; 3.5<br/>gini = 0.688<br/>samples = 8<br/>value = [3, 1, 0, 1, 0, 3]<br/>class = 0>, fillcolor="#ffffff"] ;
32 -> 33 ;
34 [label=<gini = 0.0<br/>samples = 3<br/>value = [0, 0, 0, 0, 0, 3]<br/>class = 5>, fillcolor="#e5399d"] ;
33 -> 34 ;
35 [label=<x<SUB>1</SUB> &le; 0.5<br/>gini = 0.56<br/>samples = 5<br/>value = [3, 1, 0, 1, 0, 0]<br/>class = 0>, fillcolor="#f2c09c"] ;
33 -> 35 ;
36 [label=<gini = 0.0<br/>samples = 1<br/>value = [0, 1, 0, 0, 0, 0]<br/>class = 1>, fillcolor="#9de539"] ;
35 -> 36 ;
37 [label=<x<SUB>1</SUB> &le; 1.5<br/>gini = 0.375<br/>samples = 4<br/>value = [3, 0, 0, 1, 0, 0]<br/>class = 0>, fillcolor="#eeab7b"] ;
35 -> 37 ;
38 [label=<gini = 0.0<br/>samples = 2<br/>value = [2, 0, 0, 0, 0, 0]<br/>class = 0>, fillcolor="#e58139"] ;
37 -> 38 ;
39 [label=<x<SUB>1</SUB> &le; 2.5<br/>gini = 0.5<br/>samples = 2<br/>value = [1, 0, 0, 1, 0, 0]<br/>class = 0>, fillcolor="#ffffff"] ;
37 -> 39 ;
40 [label=<gini = 0.0<br/>samples = 1<br/>value = [0, 0, 0, 1, 0, 0]<br/>class = 3>, fillcolor="#399de5"] ;
39 -> 40 ;
41 [label=<gini = 0.0<br/>samples = 1<br/>value = [1, 0, 0, 0, 0, 0]<br/>class = 0>, fillcolor="#e58139"] ;
39 -> 41 ;
42 [label=<gini = 0.0<br/>samples = 4<br/>value = [0, 4, 0, 0, 0, 0]<br/>class = 1>, fillcolor="#9de539"] ;
32 -> 42 ;
43 [label=<x<SUB>1</SUB> &le; 3.5<br/>gini = 0.5<br/>samples = 6<br/>value = [1, 0, 1, 0, 4, 0]<br/>class = 4>, fillcolor="#b388ef"] ;
19 -> 43 ;
44 [label=<x<SUB>1</SUB> &le; 1.5<br/>gini = 0.5<br/>samples = 2<br/>value = [1, 0, 1, 0, 0, 0]<br/>class = 0>, fillcolor="#ffffff"] ;
43 -> 44 ;
45 [label=<gini = 0.0<br/>samples = 1<br/>value = [0, 0, 1, 0, 0, 0]<br/>class = 2>, fillcolor="#39e581"] ;
44 -> 45 ;
46 [label=<gini = 0.0<br/>samples = 1<br/>value = [1, 0, 0, 0, 0, 0]<br/>class = 0>, fillcolor="#e58139"] ;
44 -> 46 ;
47 [label=<gini = 0.0<br/>samples = 4<br/>value = [0, 0, 0, 0, 4, 0]<br/>class = 4>, fillcolor="#8139e5"] ;
43 -> 47 ;
48 [label=<x<SUB>1</SUB> &le; 2.5<br/>gini = 0.672<br/>samples = 114<br/>value = [5, 11, 60, 8, 15, 15]<br/>class = 2>, fillcolor="#a5f3c6"] ;
0 -> 48 [labeldistance=2.5, labelangle=-45, headlabel="False"] ;
49 [label=<x<SUB>3</SUB> &le; 0.5<br/>gini = 0.738<br/>samples = 76<br/>value = [3, 6, 32, 7, 15, 13]<br/>class = 2>, fillcolor="#c8f8dc"] ;
48 -> 49 ;
50 [label=<x<SUB>2</SUB> &le; 2.5<br/>gini = 0.648<br/>samples = 16<br/>value = [0, 2, 1, 7, 6, 0]<br/>class = 3>, fillcolor="#ebf5fc"] ;
49 -> 50 ;
51 [label=<x<SUB>0</SUB> &le; 1.5<br/>gini = 0.653<br/>samples = 12<br/>value = [0, 2, 1, 3, 6, 0]<br/>class = 4>, fillcolor="#d5bdf6"] ;
50 -> 51 ;
52 [label=<x<SUB>1</SUB> &le; 1.5<br/>gini = 0.444<br/>samples = 6<br/>value = [0, 2, 0, 0, 4, 0]<br/>class = 4>, fillcolor="#c09cf2"] ;
51 -> 52 ;
53 [label=<gini = 0.0<br/>samples = 2<br/>value = [0, 2, 0, 0, 0, 0]<br/>class = 1>, fillcolor="#9de539"] ;
52 -> 53 ;
54 [label=<gini = 0.0<br/>samples = 4<br/>value = [0, 0, 0, 0, 4, 0]<br/>class = 4>, fillcolor="#8139e5"] ;
52 -> 54 ;
55 [label=<x<SUB>0</SUB> &le; 2.5<br/>gini = 0.611<br/>samples = 6<br/>value = [0, 0, 1, 3, 2, 0]<br/>class = 3>, fillcolor="#cee6f8"] ;
51 -> 55 ;
56 [label=<gini = 0.0<br/>samples = 2<br/>value = [0, 0, 0, 2, 0, 0]<br/>class = 3>, fillcolor="#399de5"] ;
55 -> 56 ;
57 [label=<x<SUB>1</SUB> &le; 0.5<br/>gini = 0.625<br/>samples = 4<br/>value = [0, 0, 1, 1, 2, 0]<br/>class = 4>, fillcolor="#d5bdf6"] ;
55 -> 57 ;
58 [label=<x<SUB>2</SUB> &le; 1.5<br/>gini = 0.444<br/>samples = 3<br/>value = [0, 0, 0, 1, 2, 0]<br/>class = 4>, fillcolor="#c09cf2"] ;
57 -> 58 ;
59 [label=<gini = 0.0<br/>samples = 1<br/>value = [0, 0, 0, 1, 0, 0]<br/>class = 3>, fillcolor="#399de5"] ;
58 -> 59 ;
60 [label=<gini = 0.0<br/>samples = 2<br/>value = [0, 0, 0, 0, 2, 0]<br/>class = 4>, fillcolor="#8139e5"] ;
58 -> 60 ;
61 [label=<gini = 0.0<br/>samples = 1<br/>value = [0, 0, 1, 0, 0, 0]<br/>class = 2>, fillcolor="#39e581"] ;
57 -> 61 ;
62 [label=<gini = 0.0<br/>samples = 4<br/>value = [0, 0, 0, 4, 0, 0]<br/>class = 3>, fillcolor="#399de5"] ;
50 -> 62 ;
63 [label=<x<SUB>0</SUB> &le; 3.5<br/>gini = 0.657<br/>samples = 60<br/>value = [3, 4, 31, 0, 9, 13]<br/>class = 2>, fillcolor="#b3f5cf"] ;
49 -> 63 ;
64 [label=<x<SUB>3</SUB> &le; 2.5<br/>gini = 0.615<br/>samples = 52<br/>value = [3, 4, 30, 0, 6, 9]<br/>class = 2>, fillcolor="#9ef2c1"] ;
63 -> 64 ;
65 [label=<x<SUB>0</SUB> &le; 2.5<br/>gini = 0.556<br/>samples = 41<br/>value = [3, 1, 26, 0, 6, 5]<br/>class = 2>, fillcolor="#8ef0b7"] ;
64 -> 65 ;
66 [label=<x<SUB>1</SUB> &le; 1.5<br/>gini = 0.485<br/>samples = 36<br/>value = [1, 1, 25, 0, 4, 5]<br/>class = 2>, fillcolor="#7feeae"] ;
65 -> 66 ;
67 [label=<x<SUB>2</SUB> &le; 2.5<br/>gini = 0.244<br/>samples = 22<br/>value = [1, 0, 19, 0, 0, 2]<br/>class = 2>, fillcolor="#57e994"] ;
66 -> 67 ;
68 [label=<gini = 0.0<br/>samples = 16<br/>value = [0, 0, 16, 0, 0, 0]<br/>class = 2>, fillcolor="#39e581"] ;
67 -> 68 ;
69 [label=<x<SUB>3</SUB> &le; 1.5<br/>gini = 0.611<br/>samples = 6<br/>value = [1, 0, 3, 0, 0, 2]<br/>class = 2>, fillcolor="#cef8e0"] ;
67 -> 69 ;
70 [label=<gini = 0.0<br/>samples = 3<br/>value = [0, 0, 3, 0, 0, 0]<br/>class = 2>, fillcolor="#39e581"] ;
69 -> 70 ;
71 [label=<x<SUB>1</SUB> &le; 0.5<br/>gini = 0.444<br/>samples = 3<br/>value = [1, 0, 0, 0, 0, 2]<br/>class = 5>, fillcolor="#f29cce"] ;
69 -> 71 ;
72 [label=<gini = 0.0<br/>samples = 2<br/>value = [0, 0, 0, 0, 0, 2]<br/>class = 5>, fillcolor="#e5399d"] ;
71 -> 72 ;
73 [label=<gini = 0.0<br/>samples = 1<br/>value = [1, 0, 0, 0, 0, 0]<br/>class = 0>, fillcolor="#e58139"] ;
71 -> 73 ;
74 [label=<x<SUB>2</SUB> &le; 2.5<br/>gini = 0.684<br/>samples = 14<br/>value = [0, 1, 6, 0, 4, 3]<br/>class = 2>, fillcolor="#d7fae6"] ;
66 -> 74 ;
75 [label=<x<SUB>0</SUB> &le; 0.5<br/>gini = 0.49<br/>samples = 7<br/>value = [0, 0, 0, 0, 4, 3]<br/>class = 4>, fillcolor="#e0cef8"] ;
74 -> 75 ;
76 [label=<gini = 0.0<br/>samples = 4<br/>value = [0, 0, 0, 0, 4, 0]<br/>class = 4>, fillcolor="#8139e5"] ;
75 -> 76 ;
77 [label=<gini = 0.0<br/>samples = 3<br/>value = [0, 0, 0, 0, 0, 3]<br/>class = 5>, fillcolor="#e5399d"] ;
75 -> 77 ;
78 [label=<x<SUB>3</SUB> &le; 1.5<br/>gini = 0.245<br/>samples = 7<br/>value = [0, 1, 6, 0, 0, 0]<br/>class = 2>, fillcolor="#5ae996"] ;
74 -> 78 ;
79 [label=<x<SUB>0</SUB> &le; 1.0<br/>gini = 0.444<br/>samples = 3<br/>value = [0, 1, 2, 0, 0, 0]<br/>class = 2>, fillcolor="#9cf2c0"] ;
78 -> 79 ;
80 [label=<gini = 0.0<br/>samples = 1<br/>value = [0, 1, 0, 0, 0, 0]<br/>class = 1>, fillcolor="#9de539"] ;
79 -> 80 ;
81 [label=<gini = 0.0<br/>samples = 2<br/>value = [0, 0, 2, 0, 0, 0]<br/>class = 2>, fillcolor="#39e581"] ;
79 -> 81 ;
82 [label=<gini = 0.0<br/>samples = 4<br/>value = [0, 0, 4, 0, 0, 0]<br/>class = 2>, fillcolor="#39e581"] ;
78 -> 82 ;
83 [label=<x<SUB>2</SUB> &le; 2.0<br/>gini = 0.64<br/>samples = 5<br/>value = [2, 0, 1, 0, 2, 0]<br/>class = 0>, fillcolor="#ffffff"] ;
65 -> 83 ;
84 [label=<gini = 0.0<br/>samples = 2<br/>value = [2, 0, 0, 0, 0, 0]<br/>class = 0>, fillcolor="#e58139"] ;
83 -> 84 ;
85 [label=<x<SUB>1</SUB> &le; 1.0<br/>gini = 0.444<br/>samples = 3<br/>value = [0, 0, 1, 0, 2, 0]<br/>class = 4>, fillcolor="#c09cf2"] ;
83 -> 85 ;
86 [label=<gini = 0.0<br/>samples = 2<br/>value = [0, 0, 0, 0, 2, 0]<br/>class = 4>, fillcolor="#8139e5"] ;
85 -> 86 ;
87 [label=<gini = 0.0<br/>samples = 1<br/>value = [0, 0, 1, 0, 0, 0]<br/>class = 2>, fillcolor="#39e581"] ;
85 -> 87 ;
88 [label=<x<SUB>0</SUB> &le; 0.5<br/>gini = 0.661<br/>samples = 11<br/>value = [0, 3, 4, 0, 0, 4]<br/>class = 2>, fillcolor="#ffffff"] ;
64 -> 88 ;
89 [label=<x<SUB>2</SUB> &le; 1.5<br/>gini = 0.375<br/>samples = 4<br/>value = [0, 3, 0, 0, 0, 1]<br/>class = 1>, fillcolor="#beee7b"] ;
88 -> 89 ;
90 [label=<gini = 0.0<br/>samples = 1<br/>value = [0, 0, 0, 0, 0, 1]<br/>class = 5>, fillcolor="#e5399d"] ;
89 -> 90 ;
91 [label=<gini = 0.0<br/>samples = 3<br/>value = [0, 3, 0, 0, 0, 0]<br/>class = 1>, fillcolor="#9de539"] ;
89 -> 91 ;
92 [label=<x<SUB>0</SUB> &le; 1.5<br/>gini = 0.49<br/>samples = 7<br/>value = [0, 0, 4, 0, 0, 3]<br/>class = 2>, fillcolor="#cef8e0"] ;
88 -> 92 ;
93 [label=<gini = 0.0<br/>samples = 2<br/>value = [0, 0, 2, 0, 0, 0]<br/>class = 2>, fillcolor="#39e581"] ;
92 -> 93 ;
94 [label=<x<SUB>0</SUB> &le; 2.5<br/>gini = 0.48<br/>samples = 5<br/>value = [0, 0, 2, 0, 0, 3]<br/>class = 5>, fillcolor="#f6bdde"] ;
92 -> 94 ;
95 [label=<gini = 0.0<br/>samples = 3<br/>value = [0, 0, 0, 0, 0, 3]<br/>class = 5>, fillcolor="#e5399d"] ;
94 -> 95 ;
96 [label=<gini = 0.0<br/>samples = 2<br/>value = [0, 0, 2, 0, 0, 0]<br/>class = 2>, fillcolor="#39e581"] ;
94 -> 96 ;
97 [label=<x<SUB>2</SUB> &le; 2.0<br/>gini = 0.594<br/>samples = 8<br/>value = [0, 0, 1, 0, 3, 4]<br/>class = 5>, fillcolor="#fad7eb"] ;
63 -> 97 ;
98 [label=<x<SUB>3</SUB> &le; 2.5<br/>gini = 0.32<br/>samples = 5<br/>value = [0, 0, 1, 0, 0, 4]<br/>class = 5>, fillcolor="#ec6ab6"] ;
97 -> 98 ;
99 [label=<gini = 0.0<br/>samples = 4<br/>value = [0, 0, 0, 0, 0, 4]<br/>class = 5>, fillcolor="#e5399d"] ;
98 -> 99 ;
100 [label=<gini = 0.0<br/>samples = 1<br/>value = [0, 0, 1, 0, 0, 0]<br/>class = 2>, fillcolor="#39e581"] ;
98 -> 100 ;
101 [label=<gini = 0.0<br/>samples = 3<br/>value = [0, 0, 0, 0, 3, 0]<br/>class = 4>, fillcolor="#8139e5"] ;
97 -> 101 ;
102 [label=<x<SUB>3</SUB> &le; 2.5<br/>gini = 0.434<br/>samples = 38<br/>value = [2, 5, 28, 1, 0, 2]<br/>class = 2>, fillcolor="#75eda7"] ;
48 -> 102 ;
103 [label=<x<SUB>0</SUB> &le; 1.5<br/>gini = 0.235<br/>samples = 31<br/>value = [2, 1, 27, 0, 0, 1]<br/>class = 2>, fillcolor="#54e992"] ;
102 -> 103 ;
104 [label=<gini = 0.0<br/>samples = 21<br/>value = [0, 0, 21, 0, 0, 0]<br/>class = 2>, fillcolor="#39e581"] ;
103 -> 104 ;
105 [label=<x<SUB>0</SUB> &le; 2.5<br/>gini = 0.58<br/>samples = 10<br/>value = [2, 1, 6, 0, 0, 1]<br/>class = 2>, fillcolor="#9cf2c0"] ;
103 -> 105 ;
106 [label=<x<SUB>3</SUB> &le; 0.5<br/>gini = 0.444<br/>samples = 3<br/>value = [2, 1, 0, 0, 0, 0]<br/>class = 0>, fillcolor="#f2c09c"] ;
105 -> 106 ;
107 [label=<gini = 0.0<br/>samples = 1<br/>value = [0, 1, 0, 0, 0, 0]<br/>class = 1>, fillcolor="#9de539"] ;
106 -> 107 ;
108 [label=<gini = 0.0<br/>samples = 2<br/>value = [2, 0, 0, 0, 0, 0]<br/>class = 0>, fillcolor="#e58139"] ;
106 -> 108 ;
109 [label=<x<SUB>2</SUB> &le; 2.5<br/>gini = 0.245<br/>samples = 7<br/>value = [0, 0, 6, 0, 0, 1]<br/>class = 2>, fillcolor="#5ae996"] ;
105 -> 109 ;
110 [label=<gini = 0.0<br/>samples = 4<br/>value = [0, 0, 4, 0, 0, 0]<br/>class = 2>, fillcolor="#39e581"] ;
109 -> 110 ;
111 [label=<x<SUB>1</SUB> &le; 3.5<br/>gini = 0.444<br/>samples = 3<br/>value = [0, 0, 2, 0, 0, 1]<br/>class = 2>, fillcolor="#9cf2c0"] ;
109 -> 111 ;
112 [label=<gini = 0.0<br/>samples = 2<br/>value = [0, 0, 2, 0, 0, 0]<br/>class = 2>, fillcolor="#39e581"] ;
111 -> 112 ;
113 [label=<gini = 0.0<br/>samples = 1<br/>value = [0, 0, 0, 0, 0, 1]<br/>class = 5>, fillcolor="#e5399d"] ;
111 -> 113 ;
114 [label=<x<SUB>1</SUB> &le; 3.5<br/>gini = 0.612<br/>samples = 7<br/>value = [0, 4, 1, 1, 0, 1]<br/>class = 1>, fillcolor="#cef29c"] ;
102 -> 114 ;
115 [label=<x<SUB>0</SUB> &le; 2.0<br/>gini = 0.5<br/>samples = 2<br/>value = [0, 0, 1, 1, 0, 0]<br/>class = 2>, fillcolor="#ffffff"] ;
114 -> 115 ;
116 [label=<gini = 0.0<br/>samples = 1<br/>value = [0, 0, 0, 1, 0, 0]<br/>class = 3>, fillcolor="#399de5"] ;
115 -> 116 ;
117 [label=<gini = 0.0<br/>samples = 1<br/>value = [0, 0, 1, 0, 0, 0]<br/>class = 2>, fillcolor="#39e581"] ;
115 -> 117 ;
118 [label=<x<SUB>0</SUB> &le; 2.0<br/>gini = 0.32<br/>samples = 5<br/>value = [0, 4, 0, 0, 0, 1]<br/>class = 1>, fillcolor="#b6ec6a"] ;
114 -> 118 ;
119 [label=<gini = 0.0<br/>samples = 1<br/>value = [0, 0, 0, 0, 0, 1]<br/>class = 5>, fillcolor="#e5399d"] ;
118 -> 119 ;
120 [label=<gini = 0.0<br/>samples = 4<br/>value = [0, 4, 0, 0, 0, 0]<br/>class = 1>, fillcolor="#9de539"] ;
118 -> 120 ;
}